<?xml version="1.0"?>
<opencv_storage>
<cascade>
  <stageType>BOOST</stageType>
  <featureType>HAAR</featureType>
  <height>24</height>
  <width>24</width>
  <stageParams>
    <boostType>GAB</boostType>
    <minHitRate>9.9500000476837158e-01</minHitRate>
    <maxFalseAlarm>5.0000000000000000e-01</maxFalseAlarm>
    <weightTrimRate>9.4999999999999996e-01</weightTrimRate>
    <maxDepth>1</maxDepth>
    <maxWeakCount>100</maxWeakCount></stageParams>
  <featureParams>
    <maxCatCount>0</maxCatCount>
    <featSize>1</featSize>
    <mode>BASIC</mode></featureParams>
  <stageNum>20</stageNum>
  <stages>
    <!-- stage 0 -->
    <_>
      <maxWeakCount>4</maxWeakCount>
      <stageThreshold>-8.9851550757884979e-02</stageThreshold>
      <weakClassifiers>
        <_>
          <internalNodes>
            0 -1 11 -2.3273739498108625e-03</internalNodes>
          <leafValues>
            7.4358975887298584e-01 -6.4705884456634521e-01</leafValues></_>
        <_>
          <internalNodes>
            0 -1 6 -1.8426449969410896e-03</internalNodes>
          <leafValues>
            9.0483087301254272e-01 -5.6719809770584106e-01</leafValues></_>
        <_>
          <internalNodes>
            0 -1 3 9.1035850346088409e-04</internalNodes>
          <leafValues>
            5.7887864112854004e-01 -9.6540534496307373e-01</leafValues></_>
        <_>
          <internalNodes>
            0 -1 29 3.3354037441313267e-03</internalNodes>
          <leafValues>
            -9.0147316455841064e-01 5.4552668333053589e-01</leafValues></_></weakClassifiers></_>
    <!-- stage 1 -->
    <_>
      <maxWeakCount>2</maxWeakCount>
      <stageThreshold>1.8878017365932465e-01</stageThreshold>
      <weakClassifiers>
        <_>
          <internalNodes>
            0 -1 35 4.3864063918590546e-03</internalNodes>
          <leafValues>
            -6.4102566242218018e-01 9.4117647409439087e-01</leafValues></_>
        <_>
          <internalNodes>
            0 -1 47 -6.6697422880679369e-04</internalNodes>
          <leafValues>
            8.2980579137802124e-01 -6.6273623704910278e-01</leafValues></_></weakClassifiers></_>
    <!-- stage 2 -->
    <_>
      <maxWeakCount>3</maxWeakCount>
      <stageThreshold>-5.9543913602828979e-01</stageThreshold>
      <weakClassifiers>
        <_>
          <internalNodes>
            0 -1 24 3.3391434699296951e-03</internalNodes>
          <leafValues>
            -7.5000000000000000e-01 7.5609755516052246e-01</leafValues></_>
        <_>
          <internalNodes>
            0 -1 40 -6.4196614548563957e-03</internalNodes>
          <leafValues>
            -8.1300216913223267e-01 6.1122411489486694e-01</leafValues></_>
        <_>
          <internalNodes>
            0 -1 9 1.2360913679003716e-03</internalNodes>
          <leafValues>
            -5.3853446245193481e-01 9.3000459671020508e-01</leafValues></_></weakClassifiers></_>
    <!-- stage 3 -->
    <_>
      <maxWeakCount>3</maxWeakCount>
      <stageThreshold>-3.8992968201637268e-01</stageThreshold>
      <weakClassifiers>
        <_>
          <internalNodes>
            0 -1 32 -3.8319692015647888e-02</internalNodes>
          <leafValues>
            8.7096774578094482e-01 -4.7619047760963440e-01</leafValues></_>
        <_>
          <internalNodes>
            0 -1 44 -1.1702014598995447e-03</internalNodes>
          <leafValues>
            7.7181947231292725e-01 -5.7004684209823608e-01</leafValues></_>
        <_>
          <internalNodes>
            0 -1 46 -3.2680295407772064e-04</internalNodes>
          <leafValues>
            -8.7362521886825562e-01 6.5630763769149780e-01</leafValues></_></weakClassifiers></_>
    <!-- stage 4 -->
    <_>
      <maxWeakCount>4</maxWeakCount>
      <stageThreshold>4.0423836559057236e-02</stageThreshold>
      <weakClassifiers>
        <_>
          <internalNodes>
            0 -1 30 3.4020035527646542e-03</internalNodes>
          <leafValues>
            -5.2631580829620361e-01 7.7142858505249023e-01</leafValues></_>
        <_>
          <internalNodes>
            0 -1 19 -7.7431846875697374e-04</internalNodes>
          <leafValues>
            -1. 4.9289861321449280e-01</leafValues></_>
        <_>
          <internalNodes>
            0 -1 38 2.3318259045481682e-03</internalNodes>
          <leafValues>
            -6.2519407272338867e-01 7.1412652730941772e-01</leafValues></_>
        <_>
          <internalNodes>
            0 -1 43 -4.8832949250936508e-03</internalNodes>
          <leafValues>
            8.3979356288909912e-01 -5.9870922565460205e-01</leafValues></_></weakClassifiers></_>
    <!-- stage 5 -->
    <_>
      <maxWeakCount>2</maxWeakCount>
      <stageThreshold>-3.8900543004274368e-02</stageThreshold>
      <weakClassifiers>
        <_>
          <internalNodes>
            0 -1 23 2.4480989668518305e-04</internalNodes>
          <leafValues>
            6.6666668653488159e-01 -6.7741936445236206e-01</leafValues></_>
        <_>
          <internalNodes>
            0 -1 36 7.6815634965896606e-03</internalNodes>
          <leafValues>
            -7.0556718111038208e-01 7.7217739820480347e-01</leafValues></_></weakClassifiers></_>
    <!-- stage 6 -->
    <_>
      <maxWeakCount>2</maxWeakCount>
      <stageThreshold>5.9951893053948879e-03</stageThreshold>
      <weakClassifiers>
        <_>
          <internalNodes>
            0 -1 2 -6.4434386789798737e-02</internalNodes>
          <leafValues>
            7.4358975887298584e-01 -6.4705884456634521e-01</leafValues></_>
        <_>
          <internalNodes>
            0 -1 31 -2.8573055751621723e-03</internalNodes>
          <leafValues>
            7.7100181579589844e-01 -7.3759454488754272e-01</leafValues></_></weakClassifiers></_>
    <!-- stage 7 -->
    <_>
      <maxWeakCount>2</maxWeakCount>
      <stageThreshold>-3.3094033598899841e-02</stageThreshold>
      <weakClassifiers>
        <_>
          <internalNodes>
            0 -1 26 -2.4081924930214882e-03</internalNodes>
          <leafValues>
            7.8947371244430542e-01 -6.5714287757873535e-01</leafValues></_>
        <_>
          <internalNodes>
            0 -1 45 -6.4912228845059872e-04</internalNodes>
          <leafValues>
            -8.2256770133972168e-01 6.5878504514694214e-01</leafValues></_></weakClassifiers></_>
    <!-- stage 8 -->
    <_>
      <maxWeakCount>2</maxWeakCount>
      <stageThreshold>-1.2435388751327991e-02</stageThreshold>
      <weakClassifiers>
        <_>
          <internalNodes>
            0 -1 10 1.0966398753225803e-02</internalNodes>
          <leafValues>
            4.9019607901573181e-01 -8.1818181276321411e-01</leafValues></_>
        <_>
          <internalNodes>
            0 -1 34 1.3968333601951599e-02</internalNodes>
          <leafValues>
            -5.0263148546218872e-01 9.5216757059097290e-01</leafValues></_></weakClassifiers></_>
    <!-- stage 9 -->
    <_>
      <maxWeakCount>2</maxWeakCount>
      <stageThreshold>-5.1104627549648285e-02</stageThreshold>
      <weakClassifiers>
        <_>
          <internalNodes>
            0 -1 7 -3.3190302550792694e-02</internalNodes>
          <leafValues>
            8.1818181276321411e-01 -5.0000000000000000e-01</leafValues></_>
        <_>
          <internalNodes>
            0 -1 17 -5.7287019444629550e-04</internalNodes>
          <leafValues>
            -8.6928641796112061e-01 6.4803928136825562e-01</leafValues></_></weakClassifiers></_>
    <!-- stage 10 -->
    <_>
      <maxWeakCount>2</maxWeakCount>
      <stageThreshold>1.5546794235706329e-01</stageThreshold>
      <weakClassifiers>
        <_>
          <internalNodes>
            0 -1 22 -5.7567292824387550e-03</internalNodes>
          <leafValues>
            1. -5.0000000000000000e-01</leafValues></_>
        <_>
          <internalNodes>
            0 -1 13 -3.9174705743789673e-03</internalNodes>
          <leafValues>
            6.5546792745590210e-01 -6.9937282800674438e-01</leafValues></_></weakClassifiers></_>
    <!-- stage 11 -->
    <_>
      <maxWeakCount>4</maxWeakCount>
      <stageThreshold>5.2385278977453709e-03</stageThreshold>
      <weakClassifiers>
        <_>
          <internalNodes>
            0 -1 21 4.4608378084376454e-04</internalNodes>
          <leafValues>
            6.1904764175415039e-01 -6.1290323734283447e-01</leafValues></_>
        <_>
          <internalNodes>
            0 -1 4 -1.1153795057907701e-03</internalNodes>
          <leafValues>
            -8.5083305835723877e-01 5.3725171089172363e-01</leafValues></_>
        <_>
          <internalNodes>
            0 -1 20 6.7468723282217979e-03</internalNodes>
          <leafValues>
            -6.0242265462875366e-01 8.1629806756973267e-01</leafValues></_>
        <_>
          <internalNodes>
            0 -1 25 9.1387731954455376e-03</internalNodes>
          <leafValues>
            6.8331271409988403e-01 -8.7989956140518188e-01</leafValues></_></weakClassifiers></_>
    <!-- stage 12 -->
    <_>
      <maxWeakCount>3</maxWeakCount>
      <stageThreshold>1.3058586418628693e-01</stageThreshold>
      <weakClassifiers>
        <_>
          <internalNodes>
            0 -1 28 -1.9297695253044367e-03</internalNodes>
          <leafValues>
            -9.1304349899291992e-01 5.6000000238418579e-01</leafValues></_>
        <_>
          <internalNodes>
            0 -1 41 -1.4544652367476374e-04</internalNodes>
          <leafValues>
            5.5665725469589233e-01 -8.5248565673828125e-01</leafValues></_>
        <_>
          <internalNodes>
            0 -1 33 4.5392662286758423e-04</internalNodes>
          <leafValues>
            4.8697212338447571e-01 -9.5119619369506836e-01</leafValues></_></weakClassifiers></_>
    <!-- stage 13 -->
    <_>
      <maxWeakCount>1</maxWeakCount>
      <stageThreshold>4.8148149251937866e-01</stageThreshold>
      <weakClassifiers>
        <_>
          <internalNodes>
            0 -1 18 2.7556451968848705e-03</internalNodes>
          <leafValues>
            4.8148149251937866e-01 -1.</leafValues></_></weakClassifiers></_>
    <!-- stage 14 -->
    <_>
      <maxWeakCount>2</maxWeakCount>
      <stageThreshold>7.4119322001934052e-02</stageThreshold>
      <weakClassifiers>
        <_>
          <internalNodes>
            0 -1 16 -5.6047337129712105e-03</internalNodes>
          <leafValues>
            6.4999997615814209e-01 -5.7575756311416626e-01</leafValues></_>
        <_>
          <internalNodes>
            0 -1 15 -6.1113378033041954e-03</internalNodes>
          <leafValues>
            7.8122854232788086e-01 -5.7588064670562744e-01</leafValues></_></weakClassifiers></_>
    <!-- stage 15 -->
    <_>
      <maxWeakCount>5</maxWeakCount>
      <stageThreshold>-9.6914254128932953e-02</stageThreshold>
      <weakClassifiers>
        <_>
          <internalNodes>
            0 -1 42 -1.0624013841152191e-02</internalNodes>
          <leafValues>
            8.4615385532379150e-01 -3.1914892792701721e-01</leafValues></_>
        <_>
          <internalNodes>
            0 -1 27 -9.5527566969394684e-02</internalNodes>
          <leafValues>
            9.2787468433380127e-01 -3.4504082798957825e-01</leafValues></_>
        <_>
          <internalNodes>
            0 -1 48 -2.8518191538751125e-04</internalNodes>
          <leafValues>
            7.2603708505630493e-01 -5.7464945316314697e-01</leafValues></_>
        <_>
          <internalNodes>
            0 -1 0 5.0793541595339775e-04</internalNodes>
          <leafValues>
            5.4732644557952881e-01 -8.9439260959625244e-01</leafValues></_>
        <_>
          <internalNodes>
            0 -1 39 2.7172744739800692e-04</internalNodes>
          <leafValues>
            -7.0608806610107422e-01 6.5932828187942505e-01</leafValues></_></weakClassifiers></_>
    <!-- stage 16 -->
    <_>
      <maxWeakCount>2</maxWeakCount>
      <stageThreshold>6.9500580430030823e-02</stageThreshold>
      <weakClassifiers>
        <_>
          <internalNodes>
            0 -1 37 9.4993913080543280e-04</internalNodes>
          <leafValues>
            -4.7368422150611877e-01 7.1428573131561279e-01</leafValues></_>
        <_>
          <internalNodes>
            0 -1 14 1.8245838873554021e-05</internalNodes>
          <leafValues>
            -6.4478516578674316e-01 6.7684757709503174e-01</leafValues></_></weakClassifiers></_>
    <!-- stage 17 -->
    <_>
      <maxWeakCount>1</maxWeakCount>
      <stageThreshold>4.5454546809196472e-01</stageThreshold>
      <weakClassifiers>
        <_>
          <internalNodes>
            0 -1 5 8.3517268300056458e-02</internalNodes>
          <leafValues>
            4.5454546809196472e-01 -1.</leafValues></_></weakClassifiers></_>
    <!-- stage 18 -->
    <_>
      <maxWeakCount>1</maxWeakCount>
      <stageThreshold>4.8148149251937866e-01</stageThreshold>
      <weakClassifiers>
        <_>
          <internalNodes>
            0 -1 1 3.3495211973786354e-03</internalNodes>
          <leafValues>
            4.8148149251937866e-01 -1.</leafValues></_></weakClassifiers></_>
    <!-- stage 19 -->
    <_>
      <maxWeakCount>3</maxWeakCount>
      <stageThreshold>-3.9570793509483337e-01</stageThreshold>
      <weakClassifiers>
        <_>
          <internalNodes>
            0 -1 49 8.1096775829792023e-04</internalNodes>
          <leafValues>
            -3.6170211434364319e-01 9.2307692766189575e-01</leafValues></_>
        <_>
          <internalNodes>
            0 -1 8 4.6428426867350936e-04</internalNodes>
          <leafValues>
            -5.5795210599899292e-01 7.5901246070861816e-01</leafValues></_>
        <_>
          <internalNodes>
            0 -1 12 7.5810152338817716e-04</internalNodes>
          <leafValues>
            5.2394628524780273e-01 -8.4159213304519653e-01</leafValues></_></weakClassifiers></_></stages>
  <features>
    <_>
      <rects>
        <_>
          0 3 1 3 -1.</_>
        <_>
          0 4 1 1 3.</_></rects>
      <tilted>0</tilted></_>
    <_>
      <rects>
        <_>
          0 3 22 2 -1.</_>
        <_>
          0 3 11 1 2.</_>
        <_>
          11 4 11 1 2.</_></rects>
      <tilted>0</tilted></_>
    <_>
      <rects>
        <_>
          0 5 24 6 -1.</_>
        <_>
          8 5 8 6 3.</_></rects>
      <tilted>0</tilted></_>
    <_>
      <rects>
        <_>
          0 12 2 4 -1.</_>
        <_>
          0 12 1 2 2.</_>
        <_>
          1 14 1 2 2.</_></rects>
      <tilted>0</tilted></_>
    <_>
      <rects>
        <_>
          0 16 2 4 -1.</_>
        <_>
          0 16 1 2 2.</_>
        <_>
          1 18 1 2 2.</_></rects>
      <tilted>0</tilted></_>
    <_>
      <rects>
        <_>
          1 7 22 12 -1.</_>
        <_>
          1 7 11 6 2.</_>
        <_>
          12 13 11 6 2.</_></rects>
      <tilted>0</tilted></_>
    <_>
      <rects>
        <_>
          2 3 1 8 -1.</_>
        <_>
          2 7 1 4 2.</_></rects>
      <tilted>0</tilted></_>
    <_>
      <rects>
        <_>
          2 7 18 13 -1.</_>
        <_>
          8 7 6 13 3.</_></rects>
      <tilted>0</tilted></_>
    <_>
      <rects>
        <_>
          2 8 8 2 -1.</_>
        <_>
          2 8 4 1 2.</_>
        <_>
          6 9 4 1 2.</_></rects>
      <tilted>0</tilted></_>
    <_>
      <rects>
        <_>
          3 13 3 4 -1.</_>
        <_>
          4 13 1 4 3.</_></rects>
      <tilted>0</tilted></_>
    <_>
      <rects>
        <_>
          4 5 2 16 -1.</_>
        <_>
          4 13 2 8 2.</_></rects>
      <tilted>0</tilted></_>
    <_>
      <rects>
        <_>
          5 6 4 4 -1.</_>
        <_>
          7 6 2 4 2.</_></rects>
      <tilted>0</tilted></_>
    <_>
      <rects>
        <_>
          5 7 1 12 -1.</_>
        <_>
          5 13 1 6 2.</_></rects>
      <tilted>0</tilted></_>
    <_>
      <rects>
        <_>
          5 8 6 5 -1.</_>
        <_>
          8 8 3 5 2.</_></rects>
      <tilted>0</tilted></_>
    <_>
      <rects>
        <_>
          5 13 2 5 -1.</_>
        <_>
          6 13 1 5 2.</_></rects>
      <tilted>0</tilted></_>
    <_>
      <rects>
        <_>
          5 22 11 2 -1.</_>
        <_>
          5 23 11 1 2.</_></rects>
      <tilted>0</tilted></_>
    <_>
      <rects>
        <_>
          6 18 18 4 -1.</_>
        <_>
          6 18 9 2 2.</_>
        <_>
          15 20 9 2 2.</_></rects>
      <tilted>0</tilted></_>
    <_>
      <rects>
        <_>
          7 0 2 3 -1.</_>
        <_>
          8 0 1 3 2.</_></rects>
      <tilted>0</tilted></_>
    <_>
      <rects>
        <_>
          7 1 5 3 -1.</_>
        <_>
          7 2 5 1 3.</_></rects>
      <tilted>0</tilted></_>
    <_>
      <rects>
        <_>
          7 2 4 2 -1.</_>
        <_>
          7 2 2 1 2.</_>
        <_>
          9 3 2 1 2.</_></rects>
      <tilted>0</tilted></_>
    <_>
      <rects>
        <_>
          7 18 4 6 -1.</_>
        <_>
          7 20 4 2 3.</_></rects>
      <tilted>0</tilted></_>
    <_>
      <rects>
        <_>
          7 20 16 2 -1.</_>
        <_>
          7 20 8 1 2.</_>
        <_>
          15 21 8 1 2.</_></rects>
      <tilted>0</tilted></_>
    <_>
      <rects>
        <_>
          7 22 12 2 -1.</_>
        <_>
          7 23 12 1 2.</_></rects>
      <tilted>0</tilted></_>
    <_>
      <rects>
        <_>
          8 2 2 2 -1.</_>
        <_>
          8 2 1 1 2.</_>
        <_>
          9 3 1 1 2.</_></rects>
      <tilted>0</tilted></_>
    <_>
      <rects>
        <_>
          9 8 3 6 -1.</_>
        <_>
          9 11 3 3 2.</_></rects>
      <tilted>0</tilted></_>
    <_>
      <rects>
        <_>
          9 14 6 10 -1.</_>
        <_>
          9 14 3 5 2.</_>
        <_>
          12 19 3 5 2.</_></rects>
      <tilted>0</tilted></_>
    <_>
      <rects>
        <_>
          9 21 12 2 -1.</_>
        <_>
          15 21 6 2 2.</_></rects>
      <tilted>0</tilted></_>
    <_>
      <rects>
        <_>
          10 0 12 10 -1.</_>
        <_>
          10 5 12 5 2.</_></rects>
      <tilted>0</tilted></_>
    <_>
      <rects>
        <_>
          10 10 6 2 -1.</_>
        <_>
          10 10 3 1 2.</_>
        <_>
          13 11 3 1 2.</_></rects>
      <tilted>0</tilted></_>
    <_>
      <rects>
        <_>
          10 16 6 6 -1.</_>
        <_>
          10 19 6 3 2.</_></rects>
      <tilted>0</tilted></_>
    <_>
      <rects>
        <_>
          10 18 4 4 -1.</_>
        <_>
          10 20 4 2 2.</_></rects>
      <tilted>0</tilted></_>
    <_>
      <rects>
        <_>
          11 5 9 9 -1.</_>
        <_>
          14 5 3 9 3.</_></rects>
      <tilted>0</tilted></_>
    <_>
      <rects>
        <_>
          12 0 6 15 -1.</_>
        <_>
          12 5 6 5 3.</_></rects>
      <tilted>0</tilted></_>
    <_>
      <rects>
        <_>
          12 2 1 2 -1.</_>
        <_>
          12 3 1 1 2.</_></rects>
      <tilted>0</tilted></_>
    <_>
      <rects>
        <_>
          12 2 8 10 -1.</_>
        <_>
          12 2 4 5 2.</_>
        <_>
          16 7 4 5 2.</_></rects>
      <tilted>0</tilted></_>
    <_>
      <rects>
        <_>
          12 8 4 4 -1.</_>
        <_>
          12 10 4 2 2.</_></rects>
      <tilted>0</tilted></_>
    <_>
      <rects>
        <_>
          12 18 7 6 -1.</_>
        <_>
          12 20 7 2 3.</_></rects>
      <tilted>0</tilted></_>
    <_>
      <rects>
        <_>
          12 19 9 2 -1.</_>
        <_>
          12 20 9 1 2.</_></rects>
      <tilted>0</tilted></_>
    <_>
      <rects>
        <_>
          13 7 4 3 -1.</_>
        <_>
          15 7 2 3 2.</_></rects>
      <tilted>0</tilted></_>
    <_>
      <rects>
        <_>
          13 20 8 3 -1.</_>
        <_>
          13 21 8 1 3.</_></rects>
      <tilted>0</tilted></_>
    <_>
      <rects>
        <_>
          14 5 2 12 -1.</_>
        <_>
          14 9 2 4 3.</_></rects>
      <tilted>0</tilted></_>
    <_>
      <rects>
        <_>
          14 22 7 2 -1.</_>
        <_>
          14 23 7 1 2.</_></rects>
      <tilted>0</tilted></_>
    <_>
      <rects>
        <_>
          15 13 8 7 -1.</_>
        <_>
          19 13 4 7 2.</_></rects>
      <tilted>0</tilted></_>
    <_>
      <rects>
        <_>
          16 18 8 3 -1.</_>
        <_>
          20 18 4 3 2.</_></rects>
      <tilted>0</tilted></_>
    <_>
      <rects>
        <_>
          16 20 6 4 -1.</_>
        <_>
          16 22 6 2 2.</_></rects>
      <tilted>0</tilted></_>
    <_>
      <rects>
        <_>
          17 9 3 2 -1.</_>
        <_>
          18 9 1 2 3.</_></rects>
      <tilted>0</tilted></_>
    <_>
      <rects>
        <_>
          19 0 1 3 -1.</_>
        <_>
          19 1 1 1 3.</_></rects>
      <tilted>0</tilted></_>
    <_>
      <rects>
        <_>
          19 6 3 4 -1.</_>
        <_>
          19 8 3 2 2.</_></rects>
      <tilted>0</tilted></_>
    <_>
      <rects>
        <_>
          19 9 2 1 -1.</_>
        <_>
          20 9 1 1 2.</_></rects>
      <tilted>0</tilted></_>
    <_>
      <rects>
        <_>
          21 6 2 4 -1.</_>
        <_>
          21 6 1 2 2.</_>
        <_>
          22 8 1 2 2.</_></rects>
      <tilted>0</tilted></_></features></cascade>
</opencv_storage>
